%YAML:1.0
---
my_detector: !!opencv-object-detector-hog
   winSize: [ 64, 64 ]
   blockSize: [ 16, 16 ]
   blockStride: [ 8, 8 ]
   cellSize: [ 8, 8 ]
   nbins: 9
   derivAperture: 1
   winSigma: 4.
   histogramNormType: 0
   L2HysThreshold: 2.0000000000000001e-01
   gammaCorrection: 1
   nlevels: 64
   signedGradient: 0
   SVMDetector: [ -4.52970201e-03, 2.11556139e-03, 6.90531591e-03,
       -1.15770230e-03, -6.47284370e-03, -1.03551140e-02,
       -1.40108932e-02, -4.29752516e-03, -3.13632912e-03, 2.54732533e-03,
       2.41874419e-02, 2.28734929e-02, 3.41245765e-03, -9.13172681e-03,
       -1.59877669e-02, -1.44207710e-02, -7.06826430e-03,
       -4.90015233e-03, -4.09128051e-03, 1.49251418e-02, 2.22193655e-02,
       1.23533159e-02, -5.58007462e-03, -1.85464174e-02, -1.84870400e-02,
       -9.21418983e-03, -9.75572690e-03, 4.58215782e-03, 2.99872179e-02,
       2.88885869e-02, 1.36699090e-02, -1.21470643e-02, -1.70876123e-02,
       -1.41799655e-02, -1.10317450e-02, -1.01285158e-02, 9.52601619e-03,
       2.47305464e-02, 2.36231741e-02, 1.04156665e-04, -1.53114628e-02,
       -1.65375266e-02, -1.46567393e-02, -1.01534287e-02,
       -7.56963622e-03, 1.74558945e-02, 3.53320129e-02, 2.44526137e-02,
       -1.92139554e-03, -1.71696469e-02, -1.79288480e-02,
       -1.39142778e-02, -9.20970924e-03, -7.39656948e-03, 2.97505670e-04,
       2.55350005e-02, 2.64983214e-02, -3.92123358e-03, -2.22009514e-02,
       -1.69063415e-02, -1.44638699e-02, -1.16365468e-02,
       -1.20804580e-02, 6.09147968e-03, 2.04995330e-02, 1.40322549e-02,
       -8.96752998e-03, -2.47232486e-02, -1.64591316e-02,
       -2.09129397e-02, -1.38304681e-02, -1.60277765e-02, 2.82399077e-02,
       3.59378792e-02, 1.83041487e-02, -2.13190360e-04, -1.44555746e-02,
       -1.47189172e-02, -1.02434140e-02, -3.97270964e-03, 6.55562617e-03,
       2.26663854e-02, 2.55125500e-02, 3.93847935e-03, -3.33094457e-03,
       -1.04032382e-02, -1.88324936e-02, -1.76668465e-02,
       -1.11638736e-02, 1.08877411e-02, 1.09882299e-02, 1.90458968e-02,
       3.18547222e-03, -8.95803142e-03, -1.92114767e-02, -1.73899531e-02,
       -1.90410744e-02, -1.50915487e-02, -1.12057747e-02,
       -2.92387418e-03, -1.76665350e-03, -4.91653988e-03,
       -9.97086335e-03, -1.75785981e-02, -1.95667855e-02,
       -1.88986789e-02, -1.65365636e-02, -7.75355892e-03, 3.24455760e-02,
       1.97191238e-02, -1.65474508e-03, -2.23313109e-03, -5.92835806e-03,
       -1.33695463e-02, -1.08474195e-02, -9.55134281e-04, 2.31767092e-02,
       2.06839722e-02, -2.53013847e-03, -9.28486791e-03, -5.20433020e-03,
       -1.03229648e-02, -1.05046863e-02, -7.55553273e-03, 1.07123498e-02,
       2.87771821e-02, -6.15434605e-04, -8.08386691e-03, -5.67606557e-03,
       -6.31839503e-03, -1.54196275e-02, -1.24724237e-02,
       -1.14112170e-02, -7.96151627e-03, 2.22542061e-04, -8.83726869e-03,
       -1.71666052e-02, -1.39862690e-02, -1.27315884e-02,
       -1.60066318e-02, -1.17108701e-02, -6.67654211e-03,
       -8.38461099e-04, 4.23420541e-04, 8.38831719e-03, -6.54113432e-03,
       -6.83871936e-03, -4.97906515e-03, -1.07038021e-02,
       -6.35875529e-03, -6.28989539e-04, 1.81913264e-02, 1.72610376e-02,
       9.76736750e-03, -9.77645977e-05, -1.01166433e-02, -1.47865340e-02,
       -1.58745665e-02, -1.54291920e-03, 1.72363613e-02, 2.87403334e-02,
       2.55108196e-02, -1.17811998e-02, -1.66629367e-02, -1.48300743e-02,
       -1.56705156e-02, -1.33538013e-02, -9.52825882e-03,
       -6.79496909e-03, 4.00130113e-04, -5.57026407e-03, -7.73740839e-03,
       -8.15233402e-03, -1.72640420e-02, -2.20115446e-02,
       -1.56650469e-02, -3.52068152e-03, 6.55629626e-03, 1.43911652e-02,
       6.81360252e-04, 3.21173517e-04, -2.34897318e-03, -1.16996067e-02,
       -1.67531986e-02, -1.85699388e-02, -6.15577213e-03, 1.58867110e-02,
       2.64177881e-02, 1.73186343e-02, 9.43653751e-04, -3.53356195e-03,
       -1.10863671e-02, -1.34946695e-02, -2.25992631e-02,
       -4.36678296e-03, 1.41360126e-02, 1.22315353e-02, 8.74212664e-03,
       -1.25309182e-02, -5.73517336e-03, -1.30880075e-02,
       -1.93685964e-02, -2.05564182e-02, -7.49847712e-03, 1.34974020e-02,
       1.65169798e-02, -3.12628574e-03, -1.55998487e-02, -1.16252070e-02,
       -1.19671877e-02, -1.36423223e-02, -1.69776697e-02,
       -7.58632435e-04, 1.62500422e-02, 1.27558429e-02, -5.28425677e-03,
       1.09705993e-03, 3.91876165e-05, -2.80681578e-03, -8.33453424e-03,
       -1.77145619e-02, -6.23543921e-04, 1.51833128e-02, 1.34211779e-02,
       3.39936605e-03, -7.31215952e-03, -6.98217936e-03, -9.12536867e-03,
       -8.31373408e-03, -1.47526572e-02, -9.87373991e-04, 8.89522210e-03,
       5.95183950e-03, -3.34887482e-05, -1.03231585e-02, -9.20661166e-03,
       -7.41149066e-03, -8.36564042e-03, -9.02677979e-03, 1.17575517e-02,
       1.83619652e-02, 1.18481088e-02, -2.07900512e-03, -1.40120620e-02,
       -1.12913642e-02, -8.74548033e-03, -8.77004676e-03,
       -5.51626412e-03, 1.14095127e-02, 1.50977317e-02, 1.02209412e-02,
       -7.07465271e-03, -1.67272636e-03, 1.65244453e-02, 2.41822116e-02,
       2.42909975e-02, -9.88921267e-04, -1.99365057e-02, -2.06264574e-02,
       -9.23797302e-03, -9.02573206e-03, -1.92312279e-03, 3.11309285e-02,
       3.58057953e-02, 1.75275058e-02, -1.08486721e-02, -1.88956354e-02,
       -1.60911996e-02, -1.15688452e-02, -1.33396965e-02,
       -3.28015001e-03, 5.58356941e-03, 2.97928043e-02, 2.98566036e-02,
       -1.12230529e-03, -1.30292373e-02, -1.93835944e-02,
       -1.28813703e-02, -5.42137120e-03, -6.73510460e-03, 7.58394878e-03,
       2.56947149e-02, 1.18578887e-02, -1.54308118e-02, -2.22461261e-02,
       -2.10483000e-02, -1.68557502e-02, -1.56223513e-02, 1.09687932e-02,
       4.57409024e-02, 4.64501642e-02, 1.53960930e-02, -1.23988343e-02,
       -1.21634929e-02, -8.25758837e-03, -4.83860588e-03,
       -3.89367039e-03, 9.24050622e-03, 2.66999695e-02, 1.45964306e-02,
       -4.70479671e-03, -1.70592703e-02, -1.48701081e-02,
       -1.34450458e-02, -1.14542460e-02, -7.51569867e-03,
       -4.31027124e-03, 1.17539819e-02, 1.83880366e-02, 4.12433594e-03,
       -1.67954210e-02, -1.85601171e-02, -1.37958517e-02,
       -9.27534327e-03, -9.77187883e-03, -8.22056178e-03,
       -3.37670092e-03, -2.81098066e-03, -5.74188260e-03,
       -1.57759301e-02, -1.86464228e-02, -1.51074408e-02,
       -1.13678714e-02, -1.15814609e-02, 1.09874243e-02, 2.08002441e-02,
       1.16330339e-02, -9.22415580e-04, -7.35052535e-03, -9.90673434e-03,
       -8.27223808e-03, -5.66733535e-03, -2.33739568e-03, 2.51465171e-05,
       1.80179672e-03, -1.35625503e-03, -9.66989086e-04, -7.41495984e-04,
       -2.70074350e-03, -4.18475317e-03, 1.55753817e-03, 2.15022056e-03,
       -4.08268115e-03, -1.97046250e-03, -1.17080926e-03,
       -3.01709259e-03, -5.70025342e-03, -1.23607917e-02,
       -1.09187607e-02, -7.18310243e-03, -1.07255280e-02,
       -6.59752870e-03, -8.46136454e-03, -5.19719860e-03, 1.03407679e-03,
       4.06478811e-03, 1.20805891e-03, -5.39323082e-03, -1.24521088e-03,
       -8.76425952e-03, -3.08917253e-03, -3.51601234e-03, 8.63822934e-04,
       3.30714299e-03, -4.02661448e-04, 1.97716709e-03, -2.19410774e-03,
       5.10714890e-04, 4.42666421e-03, -7.15932716e-03, -7.95531832e-03,
       -6.71004970e-03, -6.80303480e-03, -2.91109201e-03,
       -1.15515366e-04, 3.16275400e-03, 6.60633901e-03, 3.75586119e-03,
       -8.46550241e-03, -7.69136241e-03, -5.90223167e-03,
       -5.55192702e-04, 4.14815499e-03, 2.11021281e-03, -2.83108908e-03,
       4.95850283e-04, -4.10521124e-03, -1.17791547e-02, -4.10235673e-03,
       -4.99781733e-03, -8.54527205e-03, -1.38179073e-03,
       -1.56699622e-03, -6.69145549e-04, 2.55293259e-03, -5.68072777e-03,
       -1.03842886e-02, -2.85250833e-03, -4.19586105e-03,
       -1.04973782e-02, 1.01964160e-05, -1.14912889e-03, 1.47732277e-03,
       9.80829075e-03, 2.27724831e-03, -5.58843045e-03, -1.36619096e-03,
       -6.71826908e-03, -8.77252221e-03, 2.10305140e-03, 5.04726078e-03,
       1.04309069e-02, 1.56973004e-02, 6.99324673e-03, -1.14799840e-02,
       6.35860080e-04, -2.21562805e-04, -4.49710805e-03, 1.09860022e-03,
       -3.82140599e-04, -3.39788687e-03, -2.19028862e-03,
       -6.59191422e-03, -9.06357076e-03, -1.57229998e-03,
       -1.18500169e-03, -7.67242222e-04, 2.76363513e-04, -5.35524450e-03,
       -1.72314793e-03, 2.32016129e-04, -2.67758849e-03, -1.45897837e-02,
       -7.57590262e-03, -7.54800579e-03, -9.25403647e-03,
       -9.07081738e-03, -3.39327985e-03, 1.02519030e-02, 1.10647371e-02,
       -4.55816463e-03, -1.57708302e-02, -1.08429743e-02,
       -5.29800123e-03, -2.70948210e-03, 9.17323981e-04, 2.24387050e-02,
       3.13484669e-02, 2.25618444e-02, -7.61487521e-04, -1.77288726e-02,
       -1.10283056e-02, -9.46999807e-03, -5.77964541e-03,
       -6.94009382e-03, -1.02717876e-02, -6.05310732e-03,
       -5.88767463e-03, -9.21848882e-03, -1.36666168e-02,
       -1.28877060e-02, -1.02972398e-02, -1.80476275e-03, 1.50496257e-03,
       1.28283510e-02, 8.67938157e-03, 2.69308127e-03, -7.79232383e-03,
       -1.79792996e-02, -1.21459458e-02, -9.98753961e-03,
       -7.66454032e-03, -4.52750409e-03, 1.80483740e-02, 2.22725067e-02,
       8.20341706e-03, -1.36432368e-02, -1.42895710e-02, -9.40651074e-03,
       -1.02383085e-02, -8.50170758e-03, -5.03193540e-03, 1.74141861e-02,
       1.51761426e-02, 3.59464274e-03, -1.58741158e-02, -1.50414342e-02,
       -1.62028596e-02, -1.66397914e-02, -7.94713106e-03,
       -4.26737079e-03, 1.19396737e-02, 1.41998883e-02, -2.98161845e-04,
       -1.06115080e-02, -1.25036296e-02, -1.59060154e-02,
       -1.48928743e-02, -8.41802452e-03, -3.78445769e-03, 2.23664027e-02,
       1.99014302e-02, 5.39473433e-04, -1.04285432e-02, -3.41087254e-03,
       9.12742876e-03, 3.40850316e-02, 3.51453088e-02, 1.29064629e-02,
       -2.22556735e-03, -1.22057870e-02, -9.25115403e-03,
       -4.82843164e-03, -1.00925947e-02, 6.23303815e-04, 1.74898766e-02,
       1.07612461e-02, -9.82560031e-03, -1.62011292e-02, -1.88446678e-02,
       -1.56149333e-02, -1.73310470e-02, -1.09447455e-02,
       -5.08820824e-03, 2.18306351e-02, 3.41257639e-02, 2.44958475e-02,
       -3.81484325e-03, -1.36628393e-02, -1.07920896e-02,
       -1.11123808e-02, -1.39673119e-02, -8.24397989e-03, 5.23930555e-03,
       2.07151030e-03, -2.84700026e-03, -1.62674431e-02, -2.20013484e-02,
       -1.74976345e-02, -1.86922029e-02, -1.16205902e-03, 6.79880707e-03,
       1.80245191e-02, 1.28026018e-02, -7.52320280e-04, -8.83335155e-03,
       -9.57965571e-03, -6.84851222e-03, -8.76654778e-03,
       -4.36739298e-03, -1.78182544e-03, 3.15013505e-03, 8.75651930e-03,
       6.26829918e-03, -6.06346782e-03, -1.32115921e-02, -6.87659904e-03,
       -6.59895828e-03, -4.37554391e-03, -1.98838906e-03, 1.05389636e-02,
       8.45195074e-03, 3.93382879e-03, -1.13284206e-02, -1.34154446e-02,
       -9.00970772e-03, -8.84873420e-03, 1.89691177e-03, 2.60422775e-03,
       2.45337083e-04, 7.19452742e-03, 1.05573116e-02, -1.08928373e-02,
       -1.83948558e-02, -1.20994262e-02, -4.03905055e-03,
       -6.33165520e-03, -1.78340543e-03, -1.63867837e-03,
       -1.17225654e-03, 2.35473015e-03, -8.14353209e-03, -1.43799083e-02,
       -9.22272447e-03, -8.95235967e-03, -3.14803747e-03,
       -4.98007005e-03, -2.92762741e-03, -1.63382746e-03, 6.99600950e-03,
       -2.41899793e-03, -9.44994111e-03, -6.36693370e-03,
       -3.60821909e-03, 1.62429456e-03, 2.56994972e-03, -4.75900713e-03,
       6.68222609e-04, 3.34148039e-03, -9.47284140e-03, -1.82825010e-02,
       -1.42949587e-02, -5.34951268e-03, 6.90750219e-03, 5.00907935e-03,
       2.28783605e-03, -2.25312309e-03, -5.16756671e-03, -4.68398305e-03,
       -1.24209728e-02, -8.49104207e-03, 2.05384451e-03, -8.43453594e-03,
       -8.60894285e-03, -7.43758306e-03, -2.99844402e-03, 4.72230790e-03,
       -9.24740103e-04, -7.70189939e-03, -3.60581395e-03,
       -2.26783915e-03, -9.68174078e-03, -5.20574255e-03,
       -1.06140897e-02, -7.13951001e-03, -1.35215104e-03,
       -3.51238064e-03, -2.73244269e-03, 4.94702079e-04, -2.74413847e-03,
       -3.06224916e-03, -5.36305411e-03, -3.64475581e-03,
       -3.87373893e-03, -3.73405841e-04, -3.20335297e-04,
       -8.44184775e-03, -8.67581461e-03, -1.99443637e-03,
       -4.51461319e-03, -8.00221786e-03, -3.12527246e-03,
       -1.22022197e-04, 9.74145439e-03, -5.79417590e-03, -7.11138034e-03,
       -3.11103626e-03, -6.59822673e-03, -9.84749105e-03,
       -2.41010450e-03, -4.31038532e-03, -2.66128872e-03,
       -2.84305005e-03, -4.08415170e-03, -7.67768128e-03,
       -7.12945079e-03, -7.47435493e-03, -9.41850524e-03,
       -5.17080119e-03, -2.84663867e-03, 2.47167470e-03, 4.02012171e-04,
       -5.03571879e-04, -8.89050402e-03, -9.81794018e-03,
       -7.35079357e-03, -3.23470868e-03, -2.86757690e-03, 1.15555199e-03,
       5.16578369e-03, 1.88889715e-03, -2.95499153e-03, -7.27513665e-03,
       1.90236606e-04, -5.36553841e-03, -7.24419812e-03, -3.69077176e-03,
       -8.38983164e-04, 6.49680430e-03, 1.04762465e-02, 5.08207316e-03,
       -8.53710435e-03, -4.81355964e-05, -3.84615059e-03,
       -8.28128215e-03, -6.61509344e-03, -4.57940996e-03, 7.47671991e-04,
       9.10928647e-04, 7.52274704e-04, -1.10302372e-02, -1.16554955e-02,
       -8.39611981e-03, -4.75107878e-03, -9.45818890e-03,
       -9.54490434e-03, 1.56615651e-03, 1.33900233e-02, 2.00442690e-02,
       3.16900807e-03, -2.46936642e-03, -4.81584016e-03, -8.71509779e-03,
       -7.12916348e-03, -4.11028322e-03, -1.10978675e-04, 3.98796611e-03,
       4.66123270e-03, -1.10938270e-02, -9.52011533e-03, -8.98535922e-03,
       -6.72485400e-03, -5.11761196e-03, -7.26890424e-03, 6.25876803e-03,
       1.68950204e-02, 1.72337852e-02, -8.92931595e-03, -1.45100970e-02,
       -1.13426466e-02, -1.39219677e-02, -1.90496966e-02,
       -1.94269679e-02, -1.08199641e-02, -1.57908478e-03, 1.52538745e-02,
       4.63926059e-04, -8.60210415e-03, -1.39583927e-02, -1.16944974e-02,
       -1.67967211e-02, -1.66097861e-02, -6.98601548e-03, 1.06087299e-02,
       3.17261182e-02, 1.82542130e-02, 2.48148874e-03, -9.73929465e-03,
       -1.20962868e-02, -1.17582418e-02, -1.52951730e-02,
       -9.77224205e-03, 2.95312633e-03, 1.90118677e-03, -1.42196482e-02,
       -1.84947830e-02, -1.56485327e-02, -7.20529398e-03,
       -8.01166054e-03, -1.57196689e-02, -6.99390424e-03, 1.82868950e-02,
       2.42617857e-02, 6.47392031e-03, -6.22127345e-03, -5.80881489e-03,
       -1.45644359e-02, -8.55354127e-03, 1.64333568e-03, 3.52633186e-02,
       4.07239422e-02, 9.01653245e-03, -7.01297028e-03, -1.10102771e-02,
       -1.41492253e-02, -1.42587693e-02, -5.57825156e-03,
       -1.07727840e-03, -4.58309427e-03, -2.72759446e-03,
       -1.07100205e-02, -1.14521440e-02, -1.38477786e-02,
       -1.79261249e-02, -1.19609218e-02, -9.25653987e-03,
       -1.03110699e-02, 1.05509525e-02, 4.28108275e-02, 3.57634425e-02,
       4.91971150e-03, -7.03804754e-03, -1.42924804e-02, -1.70725454e-02,
       -1.07858190e-02, -1.30016897e-02, -9.67183523e-03,
       -1.22658035e-03, -3.13150254e-03, -4.69345599e-03,
       -8.82419478e-03, -1.64911002e-02, -2.73131137e-03, 1.45565986e-03,
       4.95665986e-03, 2.31479411e-03, 1.97859155e-03, -9.83566698e-03,
       -9.23363212e-03, -5.73932007e-03, -8.41663871e-03, 1.84971478e-03,
       2.22830498e-03, -9.88741871e-04, 4.98038810e-03, 9.18153673e-03,
       -8.72895494e-03, -1.33540416e-02, -8.79556686e-03,
       -3.46765714e-03, -1.01646446e-02, -5.87188499e-03,
       -8.98783561e-03, -5.25248982e-03, 4.11592238e-03, -1.61248853e-03,
       1.54421618e-03, -4.70416708e-04, -1.01164468e-02, -2.37565138e-03,
       -2.22676923e-03, -2.90009729e-03, -1.38493464e-03, 2.09916988e-03,
       -1.79248303e-03, -4.96716658e-03, -3.98100913e-03,
       -4.23233816e-03, 2.19799182e-03, 4.86278068e-03, -4.02486767e-04,
       6.75247109e-04, 5.22387400e-03, -1.28739616e-02, -1.54324854e-02,
       -1.00491894e-02, -2.71587144e-03, 4.67841839e-03, 3.77730443e-03,
       -5.39804692e-04, -2.61153933e-03, 1.16041418e-04, -2.11388757e-03,
       -7.70423654e-03, -8.26305430e-03, 9.14727920e-04, -3.75331915e-03,
       -2.55211699e-03, -1.68274168e-03, -1.37136399e-03, 1.14622514e-03,
       -9.93072614e-03, -1.32908560e-02, -7.89735653e-03,
       -2.21808511e-03, -1.07162930e-02, -4.89806943e-03, 3.79819132e-04,
       3.93478246e-03, 7.57460995e-03, 2.59180856e-03, -5.18316776e-03,
       -5.55564463e-03, -3.64749576e-03, -2.63230829e-03,
       -2.34305277e-03, -9.60279722e-04, -2.84189451e-03,
       -7.69335660e-04, -2.85515189e-03, -5.71639091e-03,
       -9.35251825e-03, -4.05829633e-03, -7.03732343e-03,
       -4.35468368e-03, 2.77963863e-03, 1.85121282e-03, 7.64584169e-03,
       -7.99311232e-03, -6.06265664e-03, -4.49286727e-03,
       -9.62815341e-03, -1.58209857e-02, -1.23915896e-02,
       -2.38343579e-04, 1.76536990e-03, 1.13062758e-03, -9.71406058e-04,
       6.02930784e-04, -4.04380448e-03, -6.70601055e-03, -1.77788604e-02,
       -1.01158964e-02, 3.84718948e-03, 6.29994320e-03, 6.65370515e-03,
       -5.95663814e-03, -8.43832095e-04, -1.42881577e-03,
       -1.02808513e-02, -7.54821766e-03, -5.42452792e-03,
       -2.90420168e-04, 4.25301865e-03, -2.20507756e-03, -6.34699129e-03,
       -7.56026944e-03, -3.55234346e-03, -7.28552276e-03,
       -6.75352151e-03, -4.66230325e-03, -2.75288639e-03, 5.13470732e-03,
       2.16619205e-03, 3.37419217e-03, -2.71945307e-03, -2.11437885e-03,
       -4.87438729e-03, -1.69364139e-02, -8.27478711e-03,
       -2.72791367e-03, -6.08562201e-04, -4.31323238e-03,
       -7.17683276e-03, -5.51954890e-03, -4.73225070e-03,
       -1.12724565e-02, -1.18475994e-02, -8.88281222e-03,
       -5.16626146e-03, 7.73813576e-03, 1.49768044e-03, 2.60604406e-03,
       -2.70738569e-03, -5.43646934e-03, -8.37537833e-03,
       -4.28416533e-03, -6.32068282e-03, -5.35961194e-03, 1.94097136e-03,
       -6.73846866e-04, 4.64234594e-03, -7.06538837e-03, -2.90903519e-03,
       -4.01531579e-03, -7.48735107e-03, -9.09725949e-03,
       -8.32616631e-03, 9.07675270e-03, 1.22973463e-02, 1.04859788e-02,
       -1.46166123e-02, -1.31624211e-02, -1.20714661e-02,
       -9.13720019e-03, -8.10814369e-03, -6.40900154e-03, 8.62959120e-03,
       -1.87442999e-03, 8.51280056e-03, -1.16187541e-04, -2.98348162e-03,
       -6.80987164e-03, -1.69448014e-02, -1.46691548e-02,
       -4.54688538e-03, 1.91485956e-02, 1.16421208e-02, 1.54960733e-02,
       -9.96790640e-03, -1.31282443e-02, -1.95346996e-02,
       -1.06508136e-02, -1.10628111e-02, -1.01653105e-02,
       -1.04767608e-03, 1.01686260e-02, 2.02364475e-03, -1.37146004e-02,
       -1.96414739e-02, -1.66264642e-02, -8.26570299e-03,
       -7.43159605e-03, -5.85107505e-03, 8.95207096e-03, 2.95888819e-02,
       2.34686676e-02, -1.92367274e-03, -1.28435632e-02, -7.20200222e-03,
       -1.89660080e-02, -1.70882028e-02, -8.16103071e-03, 5.44848572e-03,
       1.06535340e-02, 4.78880573e-03, -1.28396628e-02, -2.13798415e-02,
       -2.46659704e-02, -1.72892530e-02, -1.39130438e-02,
       -6.18078979e-04, 2.54181754e-02, 3.27217020e-02, 1.20302541e-02,
       -1.32339932e-02, -1.98068526e-02, -1.87514517e-02,
       -1.95085462e-02, -1.63650885e-02, -1.37572950e-02,
       -1.11298356e-03, 3.75902914e-02, 3.97733450e-02, 1.15110101e-02,
       -7.23760156e-03, -1.64915416e-02, -2.14853715e-02,
       -2.04434842e-02, -1.95307769e-02, -1.72047000e-02,
       -6.03798591e-03, -2.35771318e-03, -1.97032071e-03,
       -7.97749124e-03, -1.54731190e-02, -1.83519423e-02,
       -2.21223943e-02, -1.32876821e-02, -5.52086858e-03, 3.49984169e-02,
       5.07819280e-02, 3.22834030e-02, 1.66598544e-03, -1.34981796e-02,
       -2.14630850e-02, -2.60893069e-02, -2.36415360e-02,
       -1.88315567e-02, -1.18577410e-03, 1.97889209e-02, 2.02697944e-02,
       -2.03026505e-03, -1.46343391e-02, -7.38355052e-03,
       -1.09391371e-02, -1.13840345e-02, -9.64557752e-03, 2.56443024e-03,
       1.32407527e-03, 6.26429589e-03, 3.45779088e-04, -4.23503853e-03,
       -7.54704978e-03, -8.01294670e-03, -7.55361561e-03,
       -5.32263657e-03, -5.35415136e-04, 2.02193693e-03, -7.77489680e-04,
       -2.61813519e-03, -4.50746156e-03, -7.14099547e-03,
       -1.49945840e-02, -1.60195362e-02, -1.07756415e-02, 6.34051813e-03,
       1.77305266e-02, 2.08870992e-02, 1.27744293e-02, 2.03741924e-03,
       -8.06887110e-04, -1.10765072e-02, -1.22150388e-02,
       -2.68235966e-03, 3.91158042e-03, 7.31900940e-03, -3.19925224e-04,
       -7.24775949e-04, 3.73806176e-03, -5.45175187e-03, -3.70247522e-03,
       -2.29449221e-03, -3.13927978e-03, -3.05315516e-05,
       -1.22712320e-03, -6.10522367e-03, -4.47944039e-03,
       -2.15901504e-03, -1.12055494e-02, -5.57670277e-03, 5.93355903e-03,
       6.66326052e-03, 7.81813823e-03, 5.28103672e-03, -1.45827758e-03,
       -1.98283326e-03, -5.99789619e-03, -2.37385719e-03,
       -9.36106686e-03, -5.59620839e-03, -6.77020382e-03,
       -3.91693972e-03, 2.00492190e-03, -3.32428957e-03, -1.06612442e-03,
       -2.92571407e-04, -6.89468114e-03, -5.81112877e-03, 4.90022311e-03,
       -1.56773138e-03, 1.15529413e-03, -6.84452709e-04, -1.69972575e-03,
       -1.04135065e-03, -5.24632074e-03, -1.60537194e-02,
       -8.26566480e-03, 5.11959009e-03, 4.85260598e-03, 3.24232690e-03,
       4.66107763e-03, 4.64185467e-03, 6.88874628e-04, -9.53052100e-03,
       -1.75618436e-02, -9.57242493e-03, 1.44629087e-03, 8.37907894e-04,
       7.60976691e-03, 6.14126027e-03, 8.30064155e-03, 7.09069520e-03,
       -8.88329744e-03, -1.19725438e-02, -7.40509341e-03, 7.79761976e-05,
       -3.92648252e-03, -8.62813147e-04, 3.10285017e-03, 2.32910924e-03,
       -3.98289267e-04, -9.19257943e-03, -1.19971754e-02,
       -6.74125226e-03, -6.53186208e-03, -9.30948742e-03, 2.20958726e-03,
       8.51607043e-03, 3.85813718e-03, 3.41347390e-04, -1.11046256e-02,
       -1.29197696e-02, -1.00434152e-02, -6.01751730e-03,
       -5.24809631e-03, -8.42886919e-04, 4.01829602e-03, 2.50398228e-03,
       5.39117632e-03, -5.30841388e-03, -6.67550927e-03, -8.01271293e-03,
       -5.79681480e-03, 3.52549995e-03, 2.08182191e-03, 8.19340628e-03,
       2.81590316e-03, 3.20240296e-03, -2.95423879e-03, -1.00354785e-02,
       -7.08464487e-03, -1.17003294e-02, -1.38624022e-02,
       -2.47942819e-03, 5.31382533e-03, -3.70727363e-03, 1.26704952e-04,
       -6.38395408e-03, -6.92219613e-03, -8.39374401e-03,
       -6.77467557e-03, -3.31544178e-03, 1.06784690e-03, 1.35632940e-02,
       2.30645575e-03, 1.83242466e-03, -1.21831882e-03, -1.07635651e-02,
       -1.19807301e-02, -1.02220867e-02, 1.80473318e-03, 1.55543874e-03,
       7.73366541e-03, 1.73203088e-03, -1.25402969e-03, -7.20543694e-03,
       -1.49697904e-02, -1.67483147e-02, -3.82351899e-03, 1.49913095e-02,
       1.61350332e-02, 1.65267065e-02, -3.57452082e-03, -1.09202070e-02,
       -1.66827422e-02, -1.23911090e-02, -1.25934817e-02,
       -9.93150100e-03, -4.51138988e-03, 2.02585105e-03, 1.31729413e-02,
       3.18055763e-03, -1.38770125e-03, -7.90556427e-03, -7.25461449e-03,
       -5.73781086e-03, 9.42305755e-03, 1.30836433e-02, 1.49177210e-02,
       1.07316114e-02, 2.02919985e-03, -7.69705418e-03, -1.09958118e-02,
       -1.72940716e-02, -1.67519115e-02, -6.09705737e-03, 4.46640328e-03,
       9.29243490e-03, 2.53059133e-03, -1.34471189e-02, -2.13247091e-02,
       -2.29898728e-02, -1.43999914e-02, -7.67754856e-03, 7.99686834e-03,
       2.48008892e-02, 2.80540437e-02, -1.85923581e-03, -2.09789108e-02,
       -2.37498078e-02, -1.97813604e-02, -9.63777676e-03,
       -7.78427813e-03, 6.91237208e-03, 7.84699433e-03, 4.44566540e-05,
       -5.99738909e-03, -1.00873224e-02, -1.63707752e-02,
       -1.53875267e-02, -3.90573707e-03, 1.11384364e-02, 1.81902908e-02,
       2.59039216e-02, 1.86207443e-02, 9.02269967e-04, -1.51405716e-02,
       -2.10517775e-02, -1.21836504e-02, -1.64001398e-02,
       -1.52732069e-02, -9.94863454e-03, -1.35136014e-02, 3.02884355e-03,
       3.38469185e-02, 3.48068029e-02, 2.17148545e-03, -9.35615133e-03,
       -2.37763058e-02, -2.44636722e-02, -2.13850290e-02,
       -2.00632680e-02, -1.43858679e-02, 1.77348554e-02, 2.69005802e-02,
       6.38017105e-03, -1.55002056e-02, -1.40894745e-02, -1.37951970e-02,
       -1.35111315e-02, -1.99395660e-02, -1.48291681e-02, 1.85280405e-02,
       3.25074643e-02, 1.57254543e-02, -3.64385452e-03, -2.12222300e-02,
       -2.50188354e-02, -2.17594933e-02, -2.18496937e-02,
       -2.10438967e-02, 1.58891696e-02, 3.94835658e-02, 2.85689998e-02,
       -8.85356031e-03, -1.51028708e-02, -1.90677475e-02,
       -1.85789615e-02, -1.59583651e-02, -7.88336992e-03, 9.05075390e-03,
       1.76188480e-02, 1.14655700e-02, -6.39988622e-03, -8.59696418e-03,
       -1.64812785e-02, -1.73225310e-02, -1.20498408e-02,
       -1.43029597e-02, -1.10811992e-02, -1.25039741e-02,
       -7.96208717e-03, -6.20899349e-03, -1.18876481e-02,
       -2.36397330e-02, -2.04628501e-02, -1.46505544e-02,
       -9.32195503e-03, 2.10740231e-02, 5.02718948e-02, 4.76001166e-02,
       1.24278497e-02, -6.75732922e-03, -1.95125304e-02, -1.92794167e-02,
       -1.88579392e-02, -1.69913955e-02, -6.07673964e-03, 1.32006574e-02,
       2.15349626e-02, 7.62174092e-03, -1.80237985e-04, -8.85541830e-03,
       -6.69486541e-03, -5.62974392e-03, -6.83112349e-03,
       -1.80547964e-03, -3.77510767e-03, -3.50377290e-03,
       -2.19180342e-03, -3.55083169e-03, -9.87493340e-03,
       -3.80658219e-03, -4.58598416e-03, -4.19762405e-03,
       -2.56999308e-04, -7.00345438e-04, 4.29534921e-05, -1.67263113e-03,
       5.77686867e-03, -5.15686395e-03, -7.13181682e-03, -1.50386607e-02,
       -1.30413845e-02, -9.87577485e-04, 9.04339179e-03, 1.58263650e-02,
       1.34970350e-02, 5.11699170e-03, -5.94720943e-03, -7.05901999e-03,
       -1.10102659e-02, -9.11981519e-03, -2.50204676e-03, 3.57569661e-03,
       6.37935754e-03, 1.30403917e-02, -2.34071934e-03, -8.89984425e-03,
       -7.39143044e-03, -9.24877636e-03, -4.59211366e-03, 2.09434351e-04,
       3.87616950e-04, 1.12282299e-03, -2.70429673e-03, -3.89784412e-03,
       -1.97572052e-03, -9.38824099e-03, -1.29901441e-02,
       -3.55863315e-03, 1.21474720e-03, -2.43507349e-03, -2.56272405e-03,
       -6.80060964e-03, 2.11722800e-03, -7.12963985e-03, -1.14999590e-02,
       -8.21813475e-03, -6.41498808e-03, 2.65459763e-03, 2.20797840e-03,
       3.91861936e-03, 5.57119399e-03, 1.32387865e-03, -1.89728558e-03,
       -9.49668419e-03, -5.34374779e-03, -4.10730531e-03,
       -1.02399965e-03, -4.62779263e-03, -2.76404404e-04, 2.79339449e-03,
       -5.40657667e-03, -3.87009676e-03, -1.13632372e-02,
       -1.55557459e-02, -4.13690368e-03, -2.86442286e-04,
       -6.62798481e-03, -3.35852173e-03, -5.80215920e-03,
       -4.84858966e-03, -6.06515538e-03, -7.57463463e-03,
       -8.05967115e-03, 5.52219199e-03, 6.25979295e-03, 1.08782237e-03,
       3.91892157e-03, -8.89276271e-04, 9.33075207e-04, -3.20704770e-03,
       -1.26719065e-02, -6.00820081e-03, -5.11672068e-03,
       -4.24559275e-03, -6.52673515e-03, -1.62230412e-04, 8.59426102e-04,
       6.22160081e-03, 4.79130726e-03, 1.10884616e-03, 2.44033523e-03,
       1.04501247e-02, 4.18120716e-03, 4.13005846e-03, 3.10235308e-03,
       6.93274569e-03, -1.14006735e-02, -1.00064771e-02, -1.07594719e-02,
       -1.17064891e-02, -8.57330114e-03, -3.62350186e-03,
       -7.00768502e-03, -7.49550760e-03, -1.11444872e-02,
       -8.72733723e-03, 1.60601595e-03, 1.64279547e-02, 5.14247548e-03,
       4.08963824e-04, -9.28491261e-03, -1.04590710e-02, -1.28730396e-02,
       -1.23197287e-02, -3.11839394e-03, 4.24922211e-03, 5.51098911e-03,
       -6.18223893e-03, -5.82581013e-03, -6.32979535e-03,
       -6.42412761e-03, -8.32253136e-03, -7.86488410e-03, 3.54439300e-03,
       2.88499054e-02, 3.08813732e-02, 1.60869248e-02, -4.17467859e-03,
       -1.33722788e-02, -1.33012487e-02, -1.54238064e-02,
       -1.34063056e-02, -6.39732787e-03, 5.41681889e-04, 1.44849531e-02,
       5.94471907e-03, -4.89853509e-03, -1.41411014e-02, -1.36274919e-02,
       -1.45659577e-02, -1.32668847e-02, 6.34418509e-04, 8.68724659e-03,
       1.30107999e-02, 2.12520678e-02, 2.48081749e-04, -4.90964623e-03,
       -1.45027237e-02, -1.61157250e-02, -1.22769214e-02,
       -4.16987529e-03, 1.89686231e-02, 1.87280010e-02, 1.03320042e-02,
       -1.39335506e-02, -1.83329396e-02, -1.50491390e-02,
       -1.86848640e-02, -1.62018053e-02, -4.56703966e-03, 4.36877320e-03,
       8.98823887e-03, 1.41563695e-02, -8.22647288e-03, -9.15029272e-03,
       -1.27893267e-02, -1.79818161e-02, -1.37244035e-02,
       -5.78085193e-03, -7.51986168e-03, -1.40049541e-02,
       -1.75309461e-02, -1.79518051e-02, 2.17648875e-03, 2.74863783e-02,
       1.62687134e-02, -5.86625356e-05, -1.05513325e-02, -1.47529347e-02,
       -1.48519985e-02, -1.40590779e-02, -1.26069970e-02, 1.30322818e-02,
       3.87936085e-02, 3.36873122e-02, 4.35864134e-03, -1.03515936e-02,
       -1.02930544e-02, -1.70877911e-02, -2.16352567e-02,
       -1.72224231e-02, -3.85487056e-03, 1.02102030e-02, 3.93060502e-03,
       -9.01784096e-03, -5.64622646e-03, -1.21581228e-02,
       -1.76464189e-02, -1.68496594e-02, -1.25187160e-02, 1.11959223e-02,
       2.77601201e-02, 2.36938149e-02, -8.99930455e-05, -1.52976802e-02,
       -2.38919426e-02, -2.36589946e-02, -1.81370713e-02,
       -1.52430898e-02, 7.87484925e-03, 4.00563143e-02, 3.17933261e-02,
       4.54451743e-04, -1.59739312e-02, -2.52061244e-02, -2.81628706e-02,
       -2.55225133e-02, -2.31621377e-02, -6.05608849e-03, 2.00112294e-02,
       2.48801187e-02, 5.28504793e-03, -1.25449244e-02, -2.13283971e-02,
       -2.61095315e-02, -2.05910038e-02, -1.36777088e-02, 1.26380669e-02,
       3.28899249e-02, 2.72884686e-02, 1.31563540e-03, -1.61541644e-02,
       -2.57699117e-02, -3.17509659e-02, -2.71346346e-02,
       -1.95586458e-02, 4.62438725e-03, 3.52192223e-02, 3.25318761e-02,
       1.36369755e-02, -7.08275475e-03, -1.60755813e-02, -1.99425276e-02,
       -2.36488525e-02, -2.45304536e-02, -1.09992195e-02, 5.71321230e-03,
       2.07548756e-02, 9.70519148e-03, -4.92347032e-03, -9.94619913e-03,
       -1.38668530e-02, -2.00123694e-02, -2.76004095e-02,
       -1.49579570e-02, -6.48442889e-03, -6.84437837e-05, 3.58618121e-03,
       5.83298272e-03, -1.08918129e-02, -1.96207967e-02, -2.16997191e-02,
       -1.49976043e-02, 1.23214116e-03, 2.72494871e-02, 3.57878655e-02,
       3.49613056e-02, 1.87015161e-02, -5.08972257e-03, -1.31485732e-02,
       -2.08567251e-02, -2.05277819e-02, -1.22189559e-02, 4.65621968e-04,
       2.33469103e-02, 3.01823635e-02, -7.75593380e-03, -9.85919032e-03,
       -1.65709369e-02, -1.63029935e-02, -1.95630193e-02,
       -5.61745232e-03, -8.34021531e-03, -7.43649481e-03,
       -5.49100945e-03, -7.98028428e-03, -1.13431429e-02,
       -1.58555936e-02, -1.43082440e-02, -1.77188441e-02,
       -1.05779180e-02, -1.25388186e-02, -7.54566817e-03,
       -3.35459085e-03, 2.29109880e-02, -3.65128671e-03, -1.44175421e-02,
       -1.58353392e-02, -1.81199946e-02, -7.61870481e-03,
       -4.48652869e-03, 7.98211154e-03, 3.05493213e-02, 2.76113078e-02,
       1.07075255e-02, -8.14953819e-03, -9.71207023e-03, -5.93910972e-03,
       -1.09302113e-03, -3.53343668e-03, 1.93532425e-04, 2.71356590e-02,
       -7.24520814e-03, -9.58331209e-03, -1.41261509e-02,
       -1.20378034e-02, -2.02288181e-02, -1.31155588e-02,
       -1.52379321e-02, -9.77135543e-03, -6.07582694e-03,
       -1.93019584e-03, 3.28743295e-03, -1.51370931e-03, -1.27243642e-02,
       -1.89775974e-02, -1.11878524e-02, -1.03943059e-02,
       -1.33849159e-02, -7.58506358e-03, 2.31039897e-02, 1.75754540e-02,
       4.48952615e-03, -8.59096833e-03, -1.42809823e-02, -2.67063198e-03,
       -5.96328732e-03, -5.78629505e-03, 1.27848489e-02, 2.43292842e-02,
       2.72129718e-02, 2.01824401e-02, -4.97128163e-03, -1.72845982e-02,
       -1.00963507e-02, -1.14071378e-02, -1.15961181e-02, 1.89406238e-03,
       -1.17246876e-03, 7.72484019e-03, 1.27672693e-02, -9.81696416e-03,
       -2.12912261e-02, -1.09730745e-02, -8.44903290e-03,
       -1.22098792e-02, -9.68093891e-03, -2.67301942e-03, 2.17735078e-02,
       2.22940780e-02, -3.96618340e-03, -2.74910387e-02, -1.88778359e-02,
       -1.28148180e-02, -1.53384637e-02, -1.67221334e-02, 1.44014871e-02,
       2.54600570e-02, 2.29360592e-02, -2.19808752e-03, -2.13989932e-02,
       -1.11950673e-02, -1.13539621e-02, -9.21895634e-03,
       -4.94442787e-03, 5.07972902e-03, 2.02690586e-02, 2.28303391e-02,
       -2.92403996e-03, -2.56619733e-02, -9.80112702e-03,
       -1.22613851e-02, -1.15036005e-02, -1.25626056e-02, 1.87349948e-03,
       2.48307791e-02, 2.69480553e-02, 9.17609502e-03, -1.84108093e-02,
       -1.39193917e-02, -1.02688596e-02, -1.46147832e-02,
       -1.13662323e-02, -3.60174570e-03, 1.14528341e-02, 1.75979175e-02,
       1.02666942e-02, -1.13065541e-02, -7.02535408e-03, -6.11310778e-03,
       -1.12528745e-02, -9.22532566e-03, -2.14067334e-03, 2.06100717e-02,
       2.60327868e-02, 8.71146470e-03, -2.13534422e-02, -1.31742610e-02,
       -1.04425242e-02, -1.11959549e-02, -9.96290706e-03,
       -6.14923751e-03, 1.11651411e-02, 2.27163900e-02, 1.05568226e-02,
       -2.04162244e-02, -1.45276496e-02, -1.25614014e-02,
       -1.28130438e-02, -9.91473719e-03, 1.20409727e-02 ]
